{"ip":0,"fr":60,"v":"5.1.20","assets":[],"layers":[{"ty":4,"nm":"Fitness","ip":0,"st":0,"ind":3,"hix":1,"ks":{"o":{"a":1,"k":[{"t":0,"s":[0],"e":[100],"i":{"x":[0.515],"y":[0.955]},"o":{"x":[0.455],"y":[0.03]}},{"t":50}]},"or":{"a":0,"k":[0,0,0]},"a":{"a":0,"k":[31.5,8,0]},"p":{"s":true,"x":{"a":0,"k":275},"y":{"a":0,"k":270.8}},"rx":{"a":0,"k":0},"ry":{"a":0,"k":0},"rz":{"a":0,"k":0},"s":{"a":0,"k":[100,100]}},"shapes":[{"ty":"gr","nm":"Fitness shape group","it":[{"ty":"sh","ks":{"a":0,"k":{"c":true,"v":[[1.72602,15.1],[1.12602,14.88],[0.906016,14.26],[0.906016,1.7],[1.12602,1.12],[1.74602,0.899999],[9.02602,0.899999],[9.58602,1.08],[9.78602,1.6],[9.58602,2.1],[9.02602,2.28],[2.52602,2.28],[2.52602,7.14],[8.62602,7.14],[9.18602,7.32],[9.38602,7.84],[9.18602,8.34],[8.62602,8.52],[2.52602,8.52],[2.52602,14.26],[2.30602,14.88]],"i":[[0.25332999999999983,0],[0.14666,0.14669999999999916],[0,0.2532999999999994],[0,0],[-0.146671,0.14666999999999986],[-0.2533399999999999,0],[0,0],[-0.13333999999999868,-0.12000100000000002],[0,-0.22667000000000015],[0.13333000000000084,-0.1200000000000001],[0.23999999999999844,0],[0,0],[0,0],[0,0],[-0.13333999999999868,-0.1200000000000001],[0,-0.22666999999999948],[0.13333000000000084,-0.11999999999999922],[0.2400000000000002,0],[0,0],[0,0],[0.1466599999999998,-0.16000000000000014]],"o":[[-0.2533400000000001,0],[-0.146671,-0.16000000000000014],[0,0],[0,-0.24],[0.15999999999999992,-0.1466670000000001],[0,0],[0.23999999999999844,0],[0.13333000000000084,0.11999999999999988],[0,0.21333000000000002],[-0.13333999999999868,0.1200000000000001],[0,0],[0,0],[0,0],[0.2400000000000002,0],[0.13333000000000084,0.1200000000000001],[0,0.2133300000000009],[-0.13333999999999868,0.120000000000001],[0,0],[0,0],[0,0.2532999999999994],[-0.13334000000000001,0.14669999999999916]]}}},{"ty":"sh","ks":{"a":0,"k":{"c":true,"v":[[13.4196,15.1],[12.8196,14.9],[12.5996,14.3],[12.5996,5.86],[12.8196,5.28],[13.4196,5.06],[13.9996,5.28],[14.2196,5.86],[14.2196,14.3],[13.9996,14.9]],"i":[[0.23999999999999844,0],[0.16000000000000014,0.1333000000000002],[0,0.2532999999999994],[0,0],[-0.14669999999999916,0.13332999999999995],[-0.2400000000000002,0],[-0.14669999999999916,-0.1466700000000003],[0,-0.25333000000000006],[0,0],[0.14670000000000094,-0.1333000000000002]],"o":[[-0.2400000000000002,0],[-0.14669999999999916,-0.14670000000000094],[0,0],[0,-0.25333000000000006],[0.16000000000000014,-0.1466700000000003],[0.23999999999999844,0],[0.14670000000000094,0.13332999999999995],[0,0],[0,0.26670000000000016],[-0.14669999999999916,0.1333000000000002]]}}},{"ty":"sh","ks":{"a":0,"k":{"c":true,"v":[[13.4196,2.96],[12.6396,2.68],[12.3396,1.94],[12.6396,1.22],[13.4196,0.94],[14.1996,1.22],[14.4996,1.94],[14.1996,2.68]],"i":[[0.3199999999999985,0],[0.20000000000000107,0.1866699999999999],[0,0.30667],[-0.1999999999999993,0.1866700000000001],[-0.3200000000000003,0],[-0.20000000000000107,-0.1866699999999999],[0,-0.29332999999999987],[0.1999999999999993,-0.18667000000000034]],"o":[[-0.3200000000000003,0],[-0.1999999999999993,-0.18667000000000034],[0,-0.29332999999999987],[0.20000000000000107,-0.1866699999999999],[0.3199999999999985,0],[0.1999999999999993,0.1866700000000001],[0,0.30667],[-0.20000000000000107,0.1866699999999999]]}}},{"ty":"sh","ks":{"a":0,"k":{"c":true,"v":[[21.9043,13.82],[22.6043,14.46],[22.3443,14.98],[21.6043,15.1],[21.0643,15.06],[18.7043,14.1],[17.9443,11.56],[17.9443,6.54],[16.6043,6.54],[16.0643,6.38],[15.8843,5.92],[16.0643,5.44],[16.6043,5.26],[17.9443,5.26],[17.9443,3],[18.1643,2.42],[18.7643,2.2],[19.3443,2.42],[19.5643,3],[19.5643,5.26],[21.7843,5.26],[22.2843,5.44],[22.4843,5.92],[22.2843,6.38],[21.7843,6.54],[19.5643,6.54],[19.5643,11.64],[20.0043,13.24],[21.3643,13.78]],"i":[[0,0],[0,-0.38670000000000115],[0.17330000000000112,-0.120000000000001],[0.33330000000000126,0.026699999999999946],[0,0],[0.5066999999999986,0.5600000000000005],[0,1.1333000000000002],[0,0],[0,0],[0.13330000000000197,0.10667000000000026],[0,0.18667000000000034],[-0.11999999999999922,0.11999999999999922],[-0.22669999999999746,0],[0,0],[0,0],[-0.14669999999999916,0.13332999999999995],[-0.2532999999999994,0],[-0.14669999999999916,-0.14666999999999986],[0,-0.25333000000000006],[0,0],[0,0],[-0.120000000000001,-0.1200000000000001],[0,-0.20000000000000018],[0.13329999999999842,-0.1200000000000001],[0.21329999999999671,0],[0,0],[0,0],[-0.2933000000000021,-0.3332999999999995],[-0.6000000000000014,-0.03999999999999915]],"o":[[0.46669999999999945,0.03999999999999915],[0,0.22669999999999924],[-0.16000000000000014,0.10670000000000002],[0,0],[-1.0667000000000009,-0.08000000000000007],[-0.5066999999999986,-0.5600000000000005],[0,0],[0,0],[-0.22669999999999746,0],[-0.11999999999999922,-0.1200000000000001],[0,-0.20000000000000018],[0.13330000000000197,-0.1200000000000001],[0,0],[0,0],[0,-0.25333000000000006],[0.14669999999999916,-0.14666999999999986],[0.240000000000002,0],[0.14669999999999916,0.13332999999999995],[0,0],[0,0],[0.21329999999999671,0],[0.13329999999999842,0.11999999999999922],[0,0.18667000000000034],[-0.120000000000001,0.10667000000000026],[0,0],[0,0],[0,0.7332999999999998],[0.3066999999999993,0.3200000000000003],[0,0]]}}},{"ty":"sh","ks":{"a":0,"k":{"c":true,"v":[[29.1012,5.02],[32.6012,8.88],[32.6012,14.3],[32.3812,14.9],[31.8012,15.1],[31.2012,14.9],[30.9812,14.3],[30.9812,8.98],[30.4412,7],[28.7612,6.38],[26.6212,7.2],[25.8212,9.42],[25.8212,14.3],[25.6012,14.9],[25.0212,15.1],[24.4212,14.9],[24.2012,14.3],[24.2012,5.86],[24.4212,5.28],[25.0212,5.06],[25.5812,5.28],[25.8012,5.84],[25.8012,6.86],[27.1412,5.5]],"i":[[-0.7333999999999996,0],[0,-2.5733300000000003],[0,0],[0.1465999999999994,-0.14670000000000094],[0.25329999999999586,0],[0.1465999999999994,0.1333000000000002],[0,0.2532999999999994],[0,0],[0.360000000000003,0.4133300000000002],[0.7733000000000025,0],[0.533299999999997,-0.5466699999999998],[0,-0.9333299999999998],[0,0],[0.14660000000000295,-0.14670000000000094],[0.2532999999999994,0],[0.1465999999999994,0.1333000000000002],[0,0.2532999999999994],[0,0],[-0.14669999999999916,0.1466699999999994],[-0.2533999999999992,0],[-0.1333999999999982,-0.1466700000000003],[0,-0.22666999999999948],[0,0],[-0.573400000000003,0.30667000000000044]],"o":[[2.3333000000000013,0],[0,0],[0,0.2532999999999994],[-0.13340000000000174,0.1333000000000002],[-0.25340000000000273,0],[-0.14669999999999916,-0.14670000000000094],[0,0],[0,-0.9066700000000001],[-0.34669999999999845,-0.4133300000000002],[-0.8933999999999997,0],[-0.5334000000000003,0.5466699999999998],[0,0],[0,0.2532999999999994],[-0.1333999999999982,0.1333000000000002],[-0.2533999999999992,0],[-0.14669999999999916,-0.14670000000000094],[0,0],[0,-0.2400000000000002],[0.1465999999999994,-0.1466700000000003],[0.23999999999999844,0],[0.1465999999999994,0.1466699999999994],[0,0],[0.3200000000000003,-0.6000000000000005],[0.5732999999999997,-0.3200000000000003]]}}},{"ty":"sh","ks":{"a":0,"k":{"c":true,"v":[[43.1084,12.74],[43.4884,12.92],[43.6484,13.38],[42.9484,14.3],[41.4284,14.94],[39.8684,15.14],[36.2884,13.8],[34.9884,10.1],[35.5684,7.46],[37.1884,5.66],[39.5884,5.02],[42.6084,6.26],[43.7284,9.62],[43.5684,10.2],[43.0484,10.38],[36.6084,10.38],[39.8684,13.82],[41.2084,13.62],[42.4084,13.04]],"i":[[-0.12000000000000455,0],[-0.10669999999999646,-0.11999999999999922],[0,-0.1867000000000001],[0.4665999999999997,-0.28000000000000114],[0.533299999999997,-0.14669999999999916],[0.5065999999999988,0],[0.8799999999999955,0.8933],[0,1.5732999999999997],[-0.3866999999999976,0.7600000000000007],[-0.693400000000004,0.42666999999999966],[-0.8933999999999997,0],[-0.7467000000000041,-0.82667],[0,-1.4133299999999984],[0.10660000000000025,-0.11999999999999922],[0.240000000000002,0],[0,0],[-2.0534000000000034,0],[-0.3733999999999966,0.1333000000000002],[-0.42670000000000385,0.2400000000000002]],"o":[[0.1465999999999994,0],[0.10660000000000025,0.11999999999999922],[0,0.3332999999999995],[-0.4799999999999969,0.27999999999999936],[-0.5334000000000003,0.1333000000000002],[-1.5067000000000021,0],[-0.8667000000000016,-0.8933],[0,-1],[0.3866000000000014,-0.7733299999999996],[0.7066000000000017,-0.42667000000000055],[1.2665999999999968,0],[0.7465999999999937,0.82667],[0,0.2666700000000013],[-0.10669999999999646,0.120000000000001],[0,0],[0.11999999999999744,2.2932999999999986],[0.519999999999996,0],[0.3733000000000004,-0.14669999999999916],[0.34660000000000224,-0.1999999999999993]]}}},{"ty":"sh","ks":{"a":0,"k":{"c":true,"v":[[39.6084,6.28],[37.5484,7.08],[36.6484,9.34],[42.3084,9.34],[41.5684,7.08]],"i":[[0.8399999999999963,0],[0.519999999999996,-0.5333300000000003],[0.09329999999999927,-0.9733300000000007],[0,0],[0.4665999999999997,0.5199999999999996]],"o":[[-0.8534000000000006,0],[-0.5067000000000021,0.5333300000000003],[0,0],[-0.02669999999999817,-0.9866700000000002],[-0.4666999999999959,-0.5333300000000003]]}}},{"ty":"sh","ks":{"a":0,"k":{"c":true,"v":[[49.3952,15.14],[47.6352,14.92],[46.1752,14.3],[45.6552,13.86],[45.5152,13.34],[45.6552,12.92],[46.0552,12.74],[46.7552,13.04],[47.9352,13.62],[49.4152,13.82],[51.0952,13.44],[51.6952,12.34],[51.4752,11.64],[50.7152,11.16],[49.1352,10.72],[46.6152,9.7],[45.8552,7.96],[46.3352,6.44],[47.6552,5.4],[49.5952,5.02],[51.0952,5.24],[52.3952,5.82],[53.0752,6.82],[52.9152,7.26],[52.5352,7.44],[51.8152,7.1],[50.7552,6.54],[49.5152,6.34],[47.9952,6.76],[47.4352,7.88],[47.6352,8.6],[48.3352,9.08],[49.7552,9.48],[51.8552,10.14],[52.9352,11.02],[53.2552,12.34],[52.1952,14.38]],"i":[[1.1599999999999966,0],[0.5600000000000023,0.14670000000000094],[0.42670000000000385,0.26670000000000016],[0.10669999999999646,0.1333000000000002],[0,0.1999999999999993],[-0.09329999999999927,0.10670000000000002],[-0.1599999999999966,0],[-0.3066000000000031,-0.1999999999999993],[-0.3866000000000014,-0.14669999999999916],[-0.5865999999999971,0],[-0.3999999999999986,0.2533000000000012],[0,0.4800000000000004],[0.1466999999999956,0.17329999999999934],[0.35999999999999943,0.1333000000000002],[0.693400000000004,0.14669999999999916],[0.506699999999995,0.4267000000000003],[0,0.7333299999999996],[-0.3200000000000003,0.4399999999999995],[-0.5600000000000023,0.25333000000000006],[-0.7199999999999989,0],[-0.4799999999999969,-0.1466700000000003],[-0.3733000000000004,-0.25333000000000006],[0,-0.3466700000000005],[0.10670000000000357,-0.1200000000000001],[0.1466999999999956,0],[0.3200000000000003,0.22667000000000037],[0.3333999999999975,0.13332999999999995],[0.49340000000000117,0],[0.3867000000000047,-0.27999999999999936],[0,-0.4666699999999997],[-0.13329999999999842,-0.18666999999999945],[-0.3200000000000003,-0.1466700000000003],[-0.6133000000000024,-0.13333000000000084],[-0.49330000000000496,-0.2400000000000002],[-0.21330000000000382,-0.34670000000000023],[0,-0.5333000000000006],[0.7066999999999979,-0.5200000000000014]],"o":[[-0.6133000000000024,0],[-0.546599999999998,-0.14669999999999916],[-0.23999999999999488,-0.16000000000000014],[-0.09329999999999927,-0.14669999999999916],[0,-0.17329999999999934],[0.10669999999999646,-0.11999999999999922],[0.1600000000000037,0],[0.3999999999999986,0.2400000000000002],[0.3999999999999986,0.1333000000000002],[0.7199999999999989,0],[0.3999999999999986,-0.2532999999999994],[0,-0.29330000000000034],[-0.1465999999999994,-0.1867000000000001],[-0.35999999999999943,-0.14670000000000094],[-1.1732999999999976,-0.2533000000000012],[-0.5065999999999988,-0.42666999999999966],[0,-0.5733300000000003],[0.3200000000000003,-0.4400000000000004],[0.5733999999999995,-0.25333000000000006],[0.5200000000000031,0],[0.49340000000000117,0.13332999999999995],[0.4533999999999949,0.3199999999999994],[0,0.17332999999999998],[-0.10660000000000025,0.1200000000000001],[-0.1600000000000037,0],[-0.3733000000000004,-0.23999999999999932],[-0.33330000000000126,-0.13332999999999995],[-0.6266000000000034,0],[-0.3733000000000004,0.28000000000000025],[0,0.2933300000000001],[0.14670000000000272,0.17332999999999998],[0.3333999999999975,0.13332999999999906],[0.9067000000000007,0.1999999999999993],[0.506699999999995,0.2400000000000002],[0.21340000000000003,0.34670000000000023],[0,0.8399999999999999],[-0.7066000000000017,0.5066999999999986]]}}},{"ty":"sh","ks":{"a":0,"k":{"c":true,"v":[[59.0046,15.14],[57.2446,14.92],[55.7846,14.3],[55.2646,13.86],[55.1246,13.34],[55.2646,12.92],[55.6646,12.74],[56.3646,13.04],[57.5446,13.62],[59.0246,13.82],[60.7046,13.44],[61.3046,12.34],[61.0846,11.64],[60.3246,11.16],[58.7446,10.72],[56.2246,9.7],[55.4646,7.96],[55.9446,6.44],[57.2646,5.4],[59.2046,5.02],[60.7046,5.24],[62.0046,5.82],[62.6846,6.82],[62.5246,7.26],[62.1446,7.44],[61.4246,7.1],[60.3646,6.54],[59.1246,6.34],[57.6046,6.76],[57.0446,7.88],[57.2446,8.6],[57.9446,9.08],[59.3646,9.48],[61.4646,10.14],[62.5446,11.02],[62.8646,12.34],[61.8046,14.38]],"i":[[1.1599999999999966,0],[0.5600000000000023,0.14670000000000094],[0.42670000000000385,0.26670000000000016],[0.10669999999999646,0.1333000000000002],[0,0.1999999999999993],[-0.09329999999999927,0.10670000000000002],[-0.1599999999999966,0],[-0.3067000000000064,-0.1999999999999993],[-0.3867000000000047,-0.14669999999999916],[-0.5867000000000004,0],[-0.3999999999999986,0.2533000000000012],[0,0.4800000000000004],[0.1466999999999956,0.17329999999999934],[0.36000000000000654,0.1333000000000002],[0.6933000000000007,0.14669999999999916],[0.506699999999995,0.4267000000000003],[0,0.7333299999999996],[-0.3200000000000003,0.4399999999999995],[-0.5600000000000023,0.25333000000000006],[-0.7199999999999989,0],[-0.4799999999999969,-0.1466700000000003],[-0.3733000000000004,-0.25333000000000006],[0,-0.3466700000000005],[0.10670000000000357,-0.1200000000000001],[0.14670000000000272,0],[0.3200000000000003,0.22667000000000037],[0.33329999999999416,0.13332999999999995],[0.49329999999999785,0],[0.3867000000000047,-0.27999999999999936],[0,-0.4666699999999997],[-0.13329999999999842,-0.18666999999999945],[-0.3200000000000003,-0.1466700000000003],[-0.6133000000000024,-0.13333000000000084],[-0.49329999999999785,-0.2400000000000002],[-0.21330000000000382,-0.34670000000000023],[0,-0.5333000000000006],[0.7066999999999979,-0.5200000000000014]],"o":[[-0.6133000000000024,0],[-0.5467000000000013,-0.14669999999999916],[-0.23999999999999488,-0.16000000000000014],[-0.09329999999999927,-0.14669999999999916],[0,-0.17329999999999934],[0.10669999999999646,-0.11999999999999922],[0.1599999999999966,0],[0.3999999999999986,0.2400000000000002],[0.3999999999999986,0.1333000000000002],[0.7199999999999989,0],[0.3999999999999986,-0.2532999999999994],[0,-0.29330000000000034],[-0.14670000000000272,-0.1867000000000001],[-0.35999999999999943,-0.14670000000000094],[-1.1732999999999976,-0.2533000000000012],[-0.5067000000000021,-0.42666999999999966],[0,-0.5733300000000003],[0.3200000000000003,-0.4400000000000004],[0.5732999999999961,-0.25333000000000006],[0.5200000000000031,0],[0.49329999999999785,0.13332999999999995],[0.4532999999999987,0.3199999999999994],[0,0.17332999999999998],[-0.10669999999999646,0.1200000000000001],[-0.1599999999999966,0],[-0.3733000000000004,-0.23999999999999932],[-0.33330000000000126,-0.13332999999999995],[-0.6266999999999996,0],[-0.3733000000000004,0.28000000000000025],[0,0.2933300000000001],[0.14670000000000272,0.17332999999999998],[0.33330000000000126,0.13332999999999906],[0.9066999999999936,0.1999999999999993],[0.5067000000000021,0.2400000000000002],[0.21329999999999671,0.34670000000000023],[0,0.8399999999999999],[-0.7066999999999979,0.5066999999999986]]}}},{"ty":"st","o":{"a":0,"k":0},"w":{"a":0,"k":0},"c":{"a":0,"k":[0,0,0,0]},"lc":3,"lj":1,"ml":1},{"ty":"fl","o":{"a":0,"k":100},"r":1,"c":{"a":0,"k":[0,0,0,1]}},{"ty":"tr","o":{"a":0,"k":100},"a":{"a":0,"k":[0,0]},"s":{"a":0,"k":[100,100]},"p":{"a":0,"k":[0,0]},"r":{"a":0,"k":0}}]}],"op":85},{"ty":4,"nm":"Boozin Logo Copy 2","ip":0,"st":0,"ind":2,"hix":2,"ks":{"o":{"a":1,"k":[{"t":0,"s":[0],"e":[0],"i":{"x":[1],"y":[1]},"o":{"x":[0],"y":[0]}},{"t":50,"s":[0],"e":[100],"i":{"x":[0.515],"y":[0.955]},"o":{"x":[0.455],"y":[0.03]}},{"t":85}]},"or":{"a":0,"k":[0,0,0]},"a":{"a":0,"k":[92.5,39.5,0]},"p":{"s":true,"x":{"a":0,"k":275},"y":{"a":0,"k":200}},"rx":{"a":0,"k":0},"ry":{"a":0,"k":0},"rz":{"a":0,"k":0},"s":{"a":0,"k":[100,100,100]}},"shapes":[{"ty":"gr","nm":"Boozin Logo Copy 2 shape group","it":[{"ty":"sh","ks":{"a":0,"k":{"c":true,"v":[[146.133,35.5758],[129.161,22.4213],[129.151,13.2139],[133.705,5.21139],[139.774,1.20215],[146.951,0.0191203],[153.986,1.86836],[159.653,6.42779],[163.692,18.6069],[158.562,30.368],[152.873,34.2271]],"i":[[2.313999999999993,0.004199999999997317],[2.0519999999999925,7.745000000000001],[-0.796999999999997,3.0177999999999994],[-2.1880000000000166,2.22651],[-2.282999999999987,0.8946999999999998],[-2.448999999999984,-0.11479890000000001],[-2.188999999999993,-1.104307],[-1.546999999999997,-1.9014800000000003],[0.2009999999999934,-4.418799999999999],[3.100999999999999,-3.153699999999997],[2.1350000000000193,-0.8943999999999974]],"o":[[-7.9410000000000025,0],[-0.8029999999999973,-3.0161999999999978],[0.796999999999997,-3.017900000000001],[1.7179999999999893,-1.7483799999999996],[2.2820000000000107,-0.8947100000000001],[2.4490000000000123,0.1147987],[2.1880000000000166,1.10431],[2.802000000000021,3.4228500000000004],[-0.20199999999999818,4.418800000000001],[-1.6200000000000045,1.6526999999999994],[-2.133999999999986,0.8943000000000012]]}}},{"ty":"sh","ks":{"a":0,"k":{"c":true,"v":[[145.589,5.28095],[134.657,12.6883],[134.701,14.1219],[135.807,14.5713],[136.189,14.5481],[139.047,12.9076],[145.511,9.93484],[148.058,10.2242],[148.584,10.2811],[150.833,8.63181],[150.888,8.32294],[148.756,5.59522]],"i":[[1.0629999999999882,0.003090000000000259],[2.484999999999985,-6.12197],[-0.367999999999995,-0.5380000000000003],[-0.5300000000000011,-0.000600000000000378],[-0.12699999999998113,0.015000000000000568],[-0.7469999999999857,0.9331999999999994],[-3.548000000000002,0],[-0.8359999999999843,-0.1869999999999994],[-0.1769999999999925,0],[-0.24199999999999022,0.9713899999999995],[-0.012000000000000455,0.10399000000000136],[1.335000000000008,0.2651300000000001]],"o":[[-3.6159999999999854,0],[-0.01300000000000523,0.0365000000000002],[0.20400000000000773,0.29749999999999943],[0.12800000000001432,-0.0004000000000008441],[1.0960000000000036,-0.125],[0.8909999999999911,-1.1103000000000005],[0.8569999999999993,0.005370000000000985],[0.17300000000000182,0.03780000000000072],[1.0829999999999984,0],[0.025000000000005684,-0.10172000000000025],[0.13999999999998636,-1.2647999999999993],[-1.0430000000000064,-0.20594]]}}},{"ty":"st","o":{"a":0,"k":0},"w":{"a":0,"k":0},"c":{"a":0,"k":[0,0,0,0]},"lc":3,"lj":1,"ml":1},{"ty":"gf","o":{"a":0,"k":100},"r":1,"g":{"p":1,"k":{"a":0,"k":[1,0.9137254901960784,0.596078431372549,0.2549019607843137]}},"t":1,"s":{"a":0,"k":[151.09,35.5758]},"e":{"a":0,"k":[138.167,1.38163]}},{"ty":"tr","o":{"a":0,"k":100},"a":{"a":0,"k":[0,0]},"s":{"a":0,"k":[100,100]},"p":{"a":0,"k":[0,0]},"r":{"a":0,"k":0}}]},{"ty":"gr","nm":"Boozin Logo Copy 2 shape group","it":[{"ty":"sh","ks":{"a":0,"k":{"c":true,"v":[[146.132,77.342],[141.44,70.3031],[141.44,37.3056],[146.133,37.9318],[150.825,37.306],[150.825,70.3031],[146.133,77.3418]],"i":[[0,0],[0,0],[0,0],[-1.585000000000008,0.0007999999999981355],[-1.5289999999999964,0.41610000000000014],[0,0],[0,0]],"o":[[0,0],[0,0],[1.5300000000000011,0.416400000000003],[1.5849999999999795,0.0007999999999981355],[0,0],[0,0],[0,0]]}}},{"ty":"st","o":{"a":0,"k":0},"w":{"a":0,"k":0},"c":{"a":0,"k":[0,0,0,0]},"lc":3,"lj":1,"ml":1},{"ty":"gf","o":{"a":0,"k":100},"r":1,"g":{"p":1,"k":{"a":0,"k":[1,0.9137254901960784,0.596078431372549,0.2549019607843137]}},"t":1,"s":{"a":0,"k":[147.456,77.342]},"e":{"a":0,"k":[127.653,64.9111]}},{"ty":"tr","o":{"a":0,"k":100},"a":{"a":0,"k":[0,0]},"s":{"a":0,"k":[100,100]},"p":{"a":0,"k":[0,0]},"r":{"a":0,"k":0}}]},{"ty":"gr","nm":"Boozin Logo Copy 2 shape group","it":[{"ty":"sh","ks":{"a":0,"k":{"c":true,"v":[[107.347,58.8323],[87.9,78.4038],[79.3837,76.4826],[72.563,71.0332],[76.0876,62.8636],[81.4595,69.532],[89.8723,71.1291],[97.3142,66.8931],[100.236,58.8442],[97.2454,50.8205],[89.7676,46.6483],[81.3688,48.3173],[76.0542,55.0314],[75.4509,58.3848],[75.4391,58.9351],[75.4548,59.521],[75.4548,59.5269],[71.9382,70.2051],[71.3309,71.0236],[64.5382,76.5437],[56.0137,78.5303],[36.4402,59.085],[55.8875,39.5115],[64.4102,41.4356],[71.2343,46.8919],[67.7019,55.0633],[62.3354,48.3887],[53.9226,46.7846],[46.4766,51.0161],[43.5494,59.0647],[46.5373,67.091],[54.015,71.2662],[62.4155,69.5986],[67.7314,62.8837],[68.3369,59.505],[68.3464,58.9824],[68.3325,58.436],[71.8493,47.7105],[72.4548,46.8919],[79.2489,41.3724],[87.774,39.3852]],"i":[[-0.03499999999999659,-10.776799999999994],[10.774899999999988,-0.03540000000000987],[2.6567000000000007,1.2767999999999944],[1.8318000000000012,2.3093000000000075],[-0.5535999999999888,2.951100000000004],[-2.5256000000000114,-1.5143999999999949],[-2.905000000000001,0.4835000000000065],[-1.899000000000001,2.2509000000000015],[0.012999999999991019,2.9448000000000008],[1.9181999999999988,2.234499999999997],[2.9089000000000027,0.45870000000000033],[2.512600000000006,-1.5360000000000014],[0.9180000000000064,-2.798099999999998],[0.04379999999999029,-1.1404999999999959],[0,-0.18549999999999756],[-0.009800000000012687,-0.19539999999999935],[0,0],[2.200000000000003,-3.134600000000006],[0.2108000000000061,-0.2663000000000011],[2.6537999999999897,-1.3006000000000029],[2.9553999999999974,-0.006599999999991724],[0.035600000000002296,10.774899999999995],[-10.775000000000006,0.03549999999999898],[-2.6585000000000036,-1.278500000000001],[-1.8322000000000003,-2.3119999999999976],[0.5594999999999999,-2.9512],[2.524800000000006,1.5168999999999997],[2.9057999999999993,-0.4814000000000007],[1.9007000000000005,-2.2501000000000033],[-0.011199999999995214,-2.9453999999999994],[-1.9176000000000002,-2.2356999999999942],[-2.9093000000000018,-0.45949999999999136],[-2.513300000000001,1.535899999999998],[-0.9181999999999988,2.7986000000000004],[-0.04250000000000398,1.1490999999999971],[0,0.17540000000000333],[0.008000000000009777,0.18140000000000356],[-2.2091000000000065,3.1476999999999933],[-0.2091000000000065,0.2663000000000011],[-2.6540999999999997,1.3004999999999995],[-2.9557000000000073,0.007000000000005002]],"o":[[0.036000000000001364,10.7729],[-2.9476000000000084,0.012500000000002842],[-2.656800000000004,-1.2767000000000053],[1.766999999999996,-2.4276999999999873],[0.9420000000000073,2.790200000000006],[2.5257000000000005,1.5144999999999982],[2.904899999999998,-0.48349999999999227],[1.8988999999999976,-2.2509000000000015],[-0.012000000000000455,-2.944900000000004],[-1.9181000000000097,-2.2346000000000004],[-2.909000000000006,-0.458599999999997],[-2.512599999999992,1.535899999999998],[-0.3563999999999936,1.0842000000000027],[-0.009500000000002728,0.18149999999999977],[0,0.19729999999999848],[0,0],[-0.09310000000000684,3.828300000000006],[-0.19529999999998893,0.2780999999999949],[-1.8158999999999992,2.331699999999998],[-2.6539,1.3006000000000029],[-10.774900000000002,0.03549999999999898],[-0.03559999999999519,-10.774999999999999],[2.9499999999999957,-0.012299999999996203],[2.6585999999999927,1.2785999999999973],[-1.7665000000000077,2.4294999999999973],[-0.9392999999999887,-2.7915999999999954],[-2.524700000000003,-1.5168999999999997],[-2.9057999999999993,0.4814000000000007],[-1.9007000000000005,2.250099999999996],[0.011099999999999,2.9453999999999994],[1.9176000000000002,2.2357000000000085],[2.9093000000000018,0.45940000000000225],[2.5132000000000048,-1.535899999999998],[0.3592000000000013,-1.0922999999999945],[0.007900000000006457,-0.1735000000000042],[0,-0.1833999999999989],[0.08370000000000744,-3.8446],[0.19530000000000314,-0.27820000000000533],[1.816599999999994,-2.331400000000002],[2.6540999999999997,-1.3005999999999958],[10.774699999999996,-0.03539999999999566]]}}},{"ty":"st","o":{"a":0,"k":0},"w":{"a":0,"k":0},"c":{"a":0,"k":[0,0,0,0]},"lc":3,"lj":1,"ml":1},{"ty":"gf","o":{"a":0,"k":100},"r":1,"g":{"p":1,"k":{"a":0,"k":[1,0.9137254901960784,0.596078431372549,0.2549019607843137]}},"t":1,"s":{"a":0,"k":[81.8917,78.5305]},"e":{"a":0,"k":[73.3883,37.2847]}},{"ty":"tr","o":{"a":0,"k":100},"a":{"a":0,"k":[0,0]},"s":{"a":0,"k":[100,100]},"p":{"a":0,"k":[0,0]},"r":{"a":0,"k":0}}]},{"ty":"gr","nm":"Boozin Logo Copy 2 shape group","it":[{"ty":"sh","ks":{"a":0,"k":{"c":true,"v":[[155.664,76.3336],[155.664,58.1576],[159.537,46.6405],[169.865,42.3937],[180.159,46.6405],[183.998,58.1576],[183.998,76.3336],[178.087,76.3336],[178.087,57.0704],[175.794,50.6494],[169.865,48.1692],[163.937,50.6493],[161.61,57.0704],[161.61,76.3336]],"i":[[0,0],[0,0],[-2.5819999999999936,2.8310999999999993],[-4.302999999999997,0],[-2.5589999999999975,-2.8312000000000026],[0,-4.847000000000001],[0,0],[0,0],[0,0],[1.5279999999999916,1.6533999999999978],[2.423999999999978,0.00010000000000331966],[1.5509999999999877,-1.6533999999999978],[0,-2.6274000000000015],[0,0]],"o":[[0,0],[0,-4.847000000000001],[2.5819999999999936,-2.8312000000000026],[4.304000000000002,0],[2.5600000000000023,2.8310999999999993],[0,0],[0,0],[0,0],[0,-2.627299999999998],[-1.5290000000000248,-1.6533999999999978],[-2.4010000000000105,0],[-1.552000000000021,1.6534000000000049],[0,0],[0,0]]}}},{"ty":"st","o":{"a":0,"k":100},"c":{"a":0,"k":[0,0,0,1]},"lc":3,"lj":1,"ml":1,"w":{"a":0,"k":2}},{"ty":"fl","o":{"a":0,"k":100},"r":1,"c":{"a":0,"k":[0,0,0,1]}},{"ty":"tr","o":{"a":0,"k":100},"a":{"a":0,"k":[0,0]},"s":{"a":0,"k":[100,100]},"p":{"a":0,"k":[0,0]},"r":{"a":0,"k":0}}]},{"ty":"gr","nm":"Boozin Logo Copy 2 shape group","it":[{"ty":"sh","ks":{"a":0,"k":{"c":true,"v":[[129.033,43.0053],[133.654,44.0415],[135.217,47.116],[134.741,49.2733],[133.246,51.4306],[116.429,70.6261],[135.352,70.6261],[135.352,76.3337],[115.376,76.3337],[110.993,75.1786],[109.464,71.8832],[110.008,69.7942],[111.91,67.2291],[128.184,48.6454],[110.789,48.6454],[110.789,43.0053]],"i":[[0,0],[-1.0420000000000016,-0.6907999999999959],[0,-1.3588999999999984],[0.3089999999999975,-0.6773999999999987],[0.6799999999999784,-0.7246999999999986],[0,0],[0,0],[0,0],[0,0],[1.0190000000000055,0.7700999999999993],[0,1.4269000000000034],[-0.34499999999999886,0.6432999999999964],[-0.9059999999999917,0.9966000000000008],[0,0],[0,0],[0,0]],"o":[[2.0390000000000157,0],[1.0420000000000016,0.690800000000003],[-0.005000000000023874,0.7445999999999984],[-0.3170000000000073,0.7134],[0,0],[0,0],[0,0],[0,0],[-1.9030000000000058,0],[-1.0189999999999912,-0.769999999999996],[0.01300000000000523,-0.7296000000000049],[0.362000000000009,-0.7135000000000105],[0,0],[0,0],[0,0],[0,0]]}}},{"ty":"st","o":{"a":0,"k":100},"c":{"a":0,"k":[0,0,0,1]},"lc":3,"lj":1,"ml":1,"w":{"a":0,"k":2}},{"ty":"fl","o":{"a":0,"k":100},"r":1,"c":{"a":0,"k":[0,0,0,1]}},{"ty":"tr","o":{"a":0,"k":100},"a":{"a":0,"k":[0,0]},"s":{"a":0,"k":[100,100]},"p":{"a":0,"k":[0,0]},"r":{"a":0,"k":0}}]},{"ty":"gr","nm":"Boozin Logo Copy 2 shape group","it":[{"ty":"sh","ks":{"a":0,"k":{"c":true,"v":[[1.00156,27.6831],[7.01495,27.6831],[7.01495,59.6182],[9.97069,68.0947],[17.6488,71.3392],[25.4289,68.0947],[28.4186,59.5503],[25.3441,51.2948],[17.4449,48.1014],[13.1642,48.8489],[9.01941,51.1591],[9.01941,44.7379],[13.3171,43.0219],[18.0565,42.4613],[22.7789,43.192],[27.0256,45.2474],[32.5803,51.4646],[34.4998,59.6182],[29.7604,72.0527],[17.7847,76.9452],[8.95147,74.516],[2.83617,67.8402],[1.42629,63.7294],[1.00166,57.0025]],"i":[[0,0],[0,0],[0,0],[-1.9704899999999999,-2.1629999999999967],[-3.148200000000001,0],[-1.993199999999998,2.1629999999999967],[0,3.533299999999997],[2.049699999999998,2.1288999999999945],[3.2165,0.00010000000000331966],[1.3735,-0.4930000000000021],[1.358789999999999,-1.0419000000000054],[0,0],[-1.504199999999999,0.3731000000000009],[-1.5966999999999985,-0.006700000000002149],[-1.5279999999999987,-0.48170000000000357],[-1.3015000000000008,-0.8994],[-1.279600000000002,-2.4686999999999983],[0,-2.9669999999999987],[3.159600000000001,-3.261499999999998],[4.824199999999998,-0.0002000000000066393],[2.67263,1.619499999999988],[1.3488100000000003,2.7706000000000017],[0.26181999999999994,1.433000000000007],[0,2.989699999999999]],"o":[[0,0],[0,0],[0,3.4879999999999995],[1.9705100000000009,2.1629999999999967],[3.1936,0],[1.9931000000000019,-2.1629999999999967],[0,-3.374699999999997],[-2.0496000000000016,-2.1289000000000016],[-1.459200000000001,0.0016999999999995907],[-1.404399999999999,0.4983000000000004],[0,0],[1.3474899999999987,-0.7656000000000063],[1.5511,-0.3791000000000011],[1.6021,0.002600000000001046],[1.5127999999999986,0.4626999999999981],[2.4235000000000007,1.6760999999999981],[1.279600000000002,2.4687000000000054],[0,5.028099999999995],[-3.159600000000001,3.261499999999998],[-3.2162000000000006,0],[-2.6420000000000003,-1.5859999999999985],[-0.6728100000000001,-1.2920999999999907],[-0.28309000000000006,-1.4949000000000012],[0,0]]}}},{"ty":"st","o":{"a":0,"k":100},"c":{"a":0,"k":[0,0,0,1]},"lc":3,"lj":1,"ml":1,"w":{"a":0,"k":2}},{"ty":"fl","o":{"a":0,"k":100},"r":1,"c":{"a":0,"k":[0,0,0,1]}},{"ty":"tr","o":{"a":0,"k":100},"a":{"a":0,"k":[0,0]},"s":{"a":0,"k":[100,100]},"p":{"a":0,"k":[0,0]},"r":{"a":0,"k":0}}]}],"op":85},{"ty":4,"nm":"Boozin Logo","ip":0,"st":0,"ind":1,"hix":3,"ks":{"o":{"a":0,"k":100},"or":{"a":0,"k":[0,0,0]},"a":{"a":0,"k":[18,39,0]},"p":{"s":true,"x":{"a":1,"k":[{"t":0,"s":[275],"e":[330],"i":{"x":[0.515],"y":[0.955]},"o":{"x":[0.455],"y":[0.03]}},{"t":50}]},"y":{"a":0,"k":200}},"rx":{"a":0,"k":0},"ry":{"a":0,"k":0},"rz":{"a":0,"k":0},"s":{"a":0,"k":[100,100,100]}},"shapes":[{"ty":"gr","nm":"Boozin Logo shape group","it":[{"ty":"sh","ks":{"a":0,"k":{"c":true,"v":[[17.7268,35.8784],[0.610004,22.612],[0.600236,13.3263],[5.19277,5.25572],[11.3135,1.21237],[18.5514,0.0192829],[25.646,1.88426],[31.3616,6.48247],[35.4349,18.7652],[30.2611,30.6264],[24.5244,34.5182]],"i":[[2.3339,0.004300000000000637],[2.069556,7.8109],[-0.803612,3.0435000000000016],[-2.2060700000000004,2.2454599999999996],[-2.3019299999999987,0.90232],[-2.4696999999999996,-0.1157755],[-2.2073,-1.113707],[-1.5606000000000009,-1.9176600000000006],[0.20309999999999917,-4.4564],[3.1281000000000034,-3.180600000000002],[2.1525,-0.9018999999999977]],"o":[[-8.008780000000002,0],[-0.810014,-3.0417999999999985],[0.803614,-3.0435999999999996],[1.7331499999999993,-1.7632500000000002],[2.3019,-0.902314],[2.4696999999999996,0.11577510000000002],[2.2074,1.1137],[2.8257999999999974,3.45197],[-0.2032000000000025,4.456399999999999],[-1.6336999999999975,1.6667000000000023],[-2.1525999999999996,0.902000000000001]]}}},{"ty":"sh","ks":{"a":0,"k":{"c":true,"v":[[17.1777,5.32587],[6.15338,12.7962],[6.19759,14.242],[7.31323,14.6952],[7.69803,14.6719],[10.5799,13.0174],[17.0995,10.0194],[19.6685,10.3111],[20.1987,10.3686],[22.4667,8.70524],[22.5225,8.39374],[20.3719,5.64282]],"i":[[1.072499999999998,0.0031200000000000117],[2.5056499999999993,-6.174010000000001],[-0.3716900000000001,-0.5425000000000004],[-0.5345599999999999,-0.0005000000000006111],[-0.12771000000000043,0.015099999999998559],[-0.752600000000001,0.9412000000000003],[-3.5783999999999985,0],[-0.8435000000000024,-0.18849999999999945],[-0.17830000000000013,0],[-0.24380000000000024,0.9796499999999995],[-0.012100000000000222,0.10488000000000142],[1.3467999999999982,0.2673799999999993]],"o":[[-3.646000000000001,0],[-0.013880000000000337,0.03689999999999927],[0.2055600000000002,0.29999999999999893],[0.1286100000000001,-0.00039999999999906777],[1.1057899999999998,-0.126100000000001],[0.8988999999999994,-1.1197],[0.8643000000000001,0.005400000000001626],[0.17409999999999926,0.03819999999999979],[1.0915999999999997,0],[0.02500000000000213,-0.10258999999999929],[0.14099999999999824,-1.275549999999999],[-1.0520999999999994,-0.20769000000000037]]}}},{"ty":"st","o":{"a":0,"k":0},"w":{"a":0,"k":0},"c":{"a":0,"k":[0,0,0,0]},"lc":3,"lj":1,"ml":1},{"ty":"gf","o":{"a":0,"k":100},"r":1,"g":{"p":1,"k":{"a":0,"k":[1,0.9137254901960784,0.596078431372549,0.2549019607843137]}},"t":1,"s":{"a":0,"k":[22.7258,35.8785]},"e":{"a":0,"k":[9.69322,1.39338]}},{"ty":"tr","o":{"a":0,"k":100},"a":{"a":0,"k":[0,0]},"s":{"a":0,"k":[100,100]},"p":{"a":0,"k":[0,0]},"r":{"a":0,"k":0}}]},{"ty":"gr","nm":"Boozin Logo shape group","it":[{"ty":"sh","ks":{"a":0,"k":{"c":true,"v":[[17.726,78],[12.9936,70.9012],[12.9936,37.6229],[17.727,38.2545],[22.4589,37.6234],[22.4589,70.9012],[17.7262,77.9997]],"i":[[0,0],[0,0],[0,0],[-1.5989000000000004,0.0007999999999981355],[-1.542300000000001,0.41970000000000596],[0,0],[0,0]],"o":[[0,0],[0,0],[1.5427,0.4200000000000017],[1.5982999999999983,0.0007999999999981355],[0,0],[0,0],[0,0]]}}},{"ty":"st","o":{"a":0,"k":0},"w":{"a":0,"k":0},"c":{"a":0,"k":[0,0,0,0]},"lc":3,"lj":1,"ml":1},{"ty":"gf","o":{"a":0,"k":100},"r":1,"g":{"p":1,"k":{"a":0,"k":[1,0.9137254901960784,0.596078431372549,0.2549019607843137]}},"t":1,"s":{"a":0,"k":[19.0608,78]},"e":{"a":0,"k":[-0.910559,65.4633]}},{"ty":"tr","o":{"a":0,"k":100},"a":{"a":0,"k":[0,0]},"s":{"a":0,"k":[100,100]},"p":{"a":0,"k":[0,0]},"r":{"a":0,"k":0}}]}],"op":85}],"op":85,"w":550,"h":400}